digraph Tree {
node [shape=box] ;
0 [label="X[0] <= 6.5\nentropy = 1.0\nsamples = 8\nvalue = [4, 4]"] ;
1 [label="X[0] <= 1.5\nentropy = 0.9183\nsamples = 6\nvalue = [4, 2]"] ;
0 -> 1 [labeldistance=2.5, labelangle=45, headlabel="True"] ;
2 [label="entropy = 0.0\nsamples = 1\nvalue = [1, 0]"] ;
1 -> 2 ;
3 [label="X[0] <= 2.5\nentropy = 0.971\nsamples = 5\nvalue = [3, 2]"] ;
1 -> 3 ;
4 [label="entropy = 0.0\nsamples = 1\nvalue = [0, 1]"] ;
3 -> 4 ;
5 [label="X[0] <= 4.5\nentropy = 0.8113\nsamples = 4\nvalue = [3, 1]"] ;
3 -> 5 ;
6 [label="entropy = 0.0\nsamples = 2\nvalue = [2, 0]"] ;
5 -> 6 ;
7 [label="X[0] <= 5.5\nentropy = 1.0\nsamples = 2\nvalue = [1, 1]"] ;
5 -> 7 ;
8 [label="entropy = 0.0\nsamples = 1\nvalue = [0, 1]"] ;
7 -> 8 ;
9 [label="entropy = 0.0\nsamples = 1\nvalue = [1, 0]"] ;
7 -> 9 ;
10 [label="entropy = 0.0\nsamples = 2\nvalue = [0, 2]"] ;
0 -> 10 [labeldistance=2.5, labelangle=-45, headlabel="False"] ;
}