digraph Tree {
node [shape=box] ;
0 [label="X[7] <= 0.5\nentropy = 0.9545\nsamples = 1045\nvalue = [653, 392]"] ;
1 [label="X[0] <= 12.5\nentropy = 0.698\nsamples = 669\nvalue = [543, 126]"] ;
0 -> 1 [labeldistance=2.5, labelangle=45, headlabel="True"] ;
2 [label="X[4] <= 2.5\nentropy = 0.9789\nsamples = 41\nvalue = [17, 24]"] ;
1 -> 2 ;
3 [label="X[6] <= 15.5729\nentropy = 0.5159\nsamples = 26\nvalue = [3, 23]"] ;
2 -> 3 ;
4 [label="X[6] <= 13.125\nentropy = 0.8454\nsamples = 11\nvalue = [3, 8]"] ;
3 -> 4 ;
5 [label="entropy = 0.0\nsamples = 6\nvalue = [0, 6]"] ;
4 -> 5 ;
6 [label="X[6] <= 14.45\nentropy = 0.971\nsamples = 5\nvalue = [3, 2]"] ;
4 -> 6 ;
7 [label="entropy = 0.0\nsamples = 2\nvalue = [2, 0]"] ;
6 -> 7 ;
8 [label="X[8] <= 0.5\nentropy = 0.9183\nsamples = 3\nvalue = [1, 2]"] ;
6 -> 8 ;
9 [label="entropy = 0.0\nsamples = 1\nvalue = [0, 1]"] ;
8 -> 9 ;
10 [label="X[0] <= 6.5\nentropy = 1.0\nsamples = 2\nvalue = [1, 1]"] ;
8 -> 10 ;
11 [label="entropy = 0.0\nsamples = 1\nvalue = [1, 0]"] ;
10 -> 11 ;
12 [label="entropy = 0.0\nsamples = 1\nvalue = [0, 1]"] ;
10 -> 12 ;
13 [label="entropy = 0.0\nsamples = 15\nvalue = [0, 15]"] ;
3 -> 13 ;
14 [label="X[0] <= 3.5\nentropy = 0.3534\nsamples = 15\nvalue = [14, 1]"] ;
2 -> 14 ;
15 [label="X[0] <= 2.5\nentropy = 0.65\nsamples = 6\nvalue = [5, 1]"] ;
14 -> 15 ;
16 [label="entropy = 0.0\nsamples = 5\nvalue = [5, 0]"] ;
15 -> 16 ;
17 [label="entropy = 0.0\nsamples = 1\nvalue = [0, 1]"] ;
15 -> 17 ;
18 [label="entropy = 0.0\nsamples = 9\nvalue = [9, 0]"] ;
14 -> 18 ;
19 [label="X[6] <= 26.2687\nentropy = 0.6401\nsamples = 628\nvalue = [526, 102]"] ;
1 -> 19 ;
20 [label="X[0] <= 32.25\nentropy = 0.5218\nsamples = 460\nvalue = [406, 54]"] ;
19 -> 20 ;
21 [label="X[0] <= 31.5\nentropy = 0.5842\nsamples = 350\nvalue = [301, 49]"] ;
20 -> 21 ;
22 [label="X[8] <= 0.5\nentropy = 0.5519\nsamples = 336\nvalue = [293, 43]"] ;
21 -> 22 ;
23 [label="X[6] <= 10.6041\nentropy = 0.4985\nsamples = 283\nvalue = [252, 31]"] ;
22 -> 23 ;
24 [label="X[0] <= 15.0\nentropy = 0.5499\nsamples = 220\nvalue = [192, 28]"] ;
23 -> 24 ;
25 [label="entropy = 0.0\nsamples = 1\nvalue = [0, 1]"] ;
24 -> 25 ;
26 [label="X[0] <= 18.5\nentropy = 0.5387\nsamples = 219\nvalue = [192, 27]"] ;
24 -> 26 ;
27 [label="entropy = 0.0\nsamples = 15\nvalue = [15, 0]"] ;
26 -> 27 ;
28 [label="X[6] <= 6.9625\nentropy = 0.5639\nsamples = 204\nvalue = [177, 27]"] ;
26 -> 28 ;
29 [label="entropy = 0.0\nsamples = 12\nvalue = [12, 0]"] ;
28 -> 29 ;
30 [label="X[6] <= 6.9875\nentropy = 0.5859\nsamples = 192\nvalue = [165, 27]"] ;
28 -> 30 ;
31 [label="entropy = 0.0\nsamples = 1\nvalue = [0, 1]"] ;
30 -> 31 ;
32 [label="X[6] <= 9.4916\nentropy = 0.574\nsamples = 191\nvalue = [165, 26]"] ;
30 -> 32 ;
33 [label="X[6] <= 7.7979\nentropy = 0.5307\nsamples = 166\nvalue = [146, 20]"] ;
32 -> 33 ;
34 [label="X[6] <= 7.7625\nentropy = 0.6868\nsamples = 71\nvalue = [58, 13]"] ;
33 -> 34 ;
35 [label="X[0] <= 23.0\nentropy = 0.5095\nsamples = 53\nvalue = [47, 6]"] ;
34 -> 35 ;
36 [label="entropy = 0.0\nsamples = 11\nvalue = [11, 0]"] ;
35 -> 36 ;
37 [label="X[0] <= 29.4213\nentropy = 0.5917\nsamples = 42\nvalue = [36, 6]"] ;
35 -> 37 ;
38 [label="X[6] <= 7.0958\nentropy = 0.9183\nsamples = 12\nvalue = [8, 4]"] ;
37 -> 38 ;
39 [label="entropy = 0.0\nsamples = 3\nvalue = [3, 0]"] ;
38 -> 39 ;
40 [label="X[6] <= 7.1958\nentropy = 0.9911\nsamples = 9\nvalue = [5, 4]"] ;
38 -> 40 ;
41 [label="entropy = 0.0\nsamples = 1\nvalue = [0, 1]"] ;
40 -> 41 ;
42 [label="X[6] <= 7.4\nentropy = 0.9544\nsamples = 8\nvalue = [5, 3]"] ;
40 -> 42 ;
43 [label="entropy = 0.0\nsamples = 3\nvalue = [3, 0]"] ;
42 -> 43 ;
44 [label="X[6] <= 7.6\nentropy = 0.971\nsamples = 5\nvalue = [2, 3]"] ;
42 -> 44 ;
45 [label="entropy = 0.0\nsamples = 1\nvalue = [0, 1]"] ;
44 -> 45 ;
46 [label="X[6] <= 7.7459\nentropy = 1.0\nsamples = 4\nvalue = [2, 2]"] ;
44 -> 46 ;
47 [label="X[9] <= 0.5\nentropy = 0.9183\nsamples = 3\nvalue = [2, 1]"] ;
46 -> 47 ;
48 [label="entropy = 1.0\nsamples = 2\nvalue = [1, 1]"] ;
47 -> 48 ;
49 [label="entropy = 0.0\nsamples = 1\nvalue = [1, 0]"] ;
47 -> 49 ;
50 [label="entropy = 0.0\nsamples = 1\nvalue = [0, 1]"] ;
46 -> 50 ;
51 [label="X[6] <= 7.7438\nentropy = 0.3534\nsamples = 30\nvalue = [28, 2]"] ;
37 -> 51 ;
52 [label="entropy = 0.0\nsamples = 14\nvalue = [14, 0]"] ;
51 -> 52 ;
53 [label="X[4] <= 0.5\nentropy = 0.5436\nsamples = 16\nvalue = [14, 2]"] ;
51 -> 53 ;
54 [label="X[0] <= 30.4213\nentropy = 0.5917\nsamples = 14\nvalue = [12, 2]"] ;
53 -> 54 ;
55 [label="entropy = 0.6194\nsamples = 13\nvalue = [11, 2]"] ;
54 -> 55 ;
56 [label="entropy = 0.0\nsamples = 1\nvalue = [1, 0]"] ;
54 -> 56 ;
57 [label="entropy = 0.0\nsamples = 2\nvalue = [2, 0]"] ;
53 -> 57 ;
58 [label="X[0] <= 21.5\nentropy = 0.9641\nsamples = 18\nvalue = [11, 7]"] ;
34 -> 58 ;
59 [label="X[0] <= 20.0\nentropy = 0.9183\nsamples = 3\nvalue = [1, 2]"] ;
58 -> 59 ;
60 [label="entropy = 0.0\nsamples = 1\nvalue = [1, 0]"] ;
59 -> 60 ;
61 [label="entropy = 0.0\nsamples = 2\nvalue = [0, 2]"] ;
59 -> 61 ;
62 [label="X[0] <= 22.5\nentropy = 0.9183\nsamples = 15\nvalue = [10, 5]"] ;
58 -> 62 ;
63 [label="entropy = 0.0\nsamples = 2\nvalue = [2, 0]"] ;
62 -> 63 ;
64 [label="X[0] <= 23.5\nentropy = 0.9612\nsamples = 13\nvalue = [8, 5]"] ;
62 -> 64 ;
65 [label="entropy = 0.0\nsamples = 1\nvalue = [0, 1]"] ;
64 -> 65 ;
66 [label="X[0] <= 24.5\nentropy = 0.9183\nsamples = 12\nvalue = [8, 4]"] ;
64 -> 66 ;
67 [label="entropy = 0.0\nsamples = 2\nvalue = [2, 0]"] ;
66 -> 67 ;
68 [label="X[6] <= 7.7854\nentropy = 0.971\nsamples = 10\nvalue = [6, 4]"] ;
66 -> 68 ;
69 [label="X[0] <= 25.5\nentropy = 0.8631\nsamples = 7\nvalue = [5, 2]"] ;
68 -> 69 ;
70 [label="entropy = 0.0\nsamples = 1\nvalue = [1, 0]"] ;
69 -> 70 ;
71 [label="X[0] <= 30.4213\nentropy = 0.9183\nsamples = 6\nvalue = [4, 2]"] ;
69 -> 71 ;
72 [label="X[0] <= 27.9213\nentropy = 0.971\nsamples = 5\nvalue = [3, 2]"] ;
71 -> 72 ;
73 [label="entropy = 0.9183\nsamples = 3\nvalue = [2, 1]"] ;
72 -> 73 ;
74 [label="entropy = 1.0\nsamples = 2\nvalue = [1, 1]"] ;
72 -> 74 ;
75 [label="entropy = 0.0\nsamples = 1\nvalue = [1, 0]"] ;
71 -> 75 ;
76 [label="X[0] <= 27.5\nentropy = 0.9183\nsamples = 3\nvalue = [1, 2]"] ;
68 -> 76 ;
77 [label="entropy = 0.0\nsamples = 2\nvalue = [0, 2]"] ;
76 -> 77 ;
78 [label="entropy = 0.0\nsamples = 1\nvalue = [1, 0]"] ;
76 -> 78 ;
79 [label="X[0] <= 30.75\nentropy = 0.3795\nsamples = 95\nvalue = [88, 7]"] ;
33 -> 79 ;
80 [label="X[0] <= 20.5\nentropy = 0.3425\nsamples = 94\nvalue = [88, 6]"] ;
79 -> 80 ;
81 [label="X[6] <= 7.9104\nentropy = 0.7793\nsamples = 13\nvalue = [10, 3]"] ;
80 -> 81 ;
82 [label="entropy = 0.0\nsamples = 6\nvalue = [6, 0]"] ;
81 -> 82 ;
83 [label="X[4] <= 0.5\nentropy = 0.9852\nsamples = 7\nvalue = [4, 3]"] ;
81 -> 83 ;
84 [label="X[6] <= 8.1042\nentropy = 0.9183\nsamples = 6\nvalue = [4, 2]"] ;
83 -> 84 ;
85 [label="X[6] <= 7.9875\nentropy = 0.971\nsamples = 5\nvalue = [3, 2]"] ;
84 -> 85 ;
86 [label="entropy = 1.0\nsamples = 2\nvalue = [1, 1]"] ;
85 -> 86 ;
87 [label="X[0] <= 19.5\nentropy = 0.9183\nsamples = 3\nvalue = [2, 1]"] ;
85 -> 87 ;
88 [label="entropy = 1.0\nsamples = 2\nvalue = [1, 1]"] ;
87 -> 88 ;
89 [label="entropy = 0.0\nsamples = 1\nvalue = [1, 0]"] ;
87 -> 89 ;
90 [label="entropy = 0.0\nsamples = 1\nvalue = [1, 0]"] ;
84 -> 90 ;
91 [label="entropy = 0.0\nsamples = 1\nvalue = [0, 1]"] ;
83 -> 91 ;
92 [label="X[6] <= 8.0813\nentropy = 0.2285\nsamples = 81\nvalue = [78, 3]"] ;
80 -> 92 ;
93 [label="X[6] <= 7.8917\nentropy = 0.1119\nsamples = 67\nvalue = [66, 1]"] ;
92 -> 93 ;
94 [label="X[6] <= 7.8833\nentropy = 0.3534\nsamples = 15\nvalue = [14, 1]"] ;
93 -> 94 ;
95 [label="entropy = 0.0\nsamples = 13\nvalue = [13, 0]"] ;
94 -> 95 ;
96 [label="X[0] <= 27.9213\nentropy = 1.0\nsamples = 2\nvalue = [1, 1]"] ;
94 -> 96 ;
97 [label="entropy = 0.0\nsamples = 1\nvalue = [1, 0]"] ;
96 -> 97 ;
98 [label="entropy = 0.0\nsamples = 1\nvalue = [0, 1]"] ;
96 -> 98 ;
99 [label="entropy = 0.0\nsamples = 52\nvalue = [52, 0]"] ;
93 -> 99 ;
100 [label="X[6] <= 8.2729\nentropy = 0.5917\nsamples = 14\nvalue = [12, 2]"] ;
92 -> 100 ;
101 [label="entropy = 0.0\nsamples = 1\nvalue = [0, 1]"] ;
100 -> 101 ;
102 [label="X[0] <= 26.5\nentropy = 0.3912\nsamples = 13\nvalue = [12, 1]"] ;
100 -> 102 ;
103 [label="entropy = 0.0\nsamples = 8\nvalue = [8, 0]"] ;
102 -> 103 ;
104 [label="X[0] <= 28.0\nentropy = 0.7219\nsamples = 5\nvalue = [4, 1]"] ;
102 -> 104 ;
105 [label="entropy = 1.0\nsamples = 2\nvalue = [1, 1]"] ;
104 -> 105 ;
106 [label="entropy = 0.0\nsamples = 3\nvalue = [3, 0]"] ;
104 -> 106 ;
107 [label="entropy = 0.0\nsamples = 1\nvalue = [0, 1]"] ;
79 -> 107 ;
108 [label="X[6] <= 9.6729\nentropy = 0.795\nsamples = 25\nvalue = [19, 6]"] ;
32 -> 108 ;
109 [label="X[0] <= 24.5\nentropy = 0.9852\nsamples = 7\nvalue = [4, 3]"] ;
108 -> 109 ;
110 [label="entropy = 0.0\nsamples = 2\nvalue = [2, 0]"] ;
109 -> 110 ;
111 [label="X[0] <= 26.5\nentropy = 0.971\nsamples = 5\nvalue = [2, 3]"] ;
109 -> 111 ;
112 [label="entropy = 0.0\nsamples = 1\nvalue = [0, 1]"] ;
111 -> 112 ;
113 [label="X[0] <= 28.5\nentropy = 1.0\nsamples = 4\nvalue = [2, 2]"] ;
111 -> 113 ;
114 [label="entropy = 0.0\nsamples = 1\nvalue = [1, 0]"] ;
113 -> 114 ;
115 [label="X[0] <= 29.4213\nentropy = 0.9183\nsamples = 3\nvalue = [1, 2]"] ;
113 -> 115 ;
116 [label="entropy = 0.0\nsamples = 1\nvalue = [0, 1]"] ;
115 -> 116 ;
117 [label="X[0] <= 29.9213\nentropy = 1.0\nsamples = 2\nvalue = [1, 1]"] ;
115 -> 117 ;
118 [label="entropy = 0.0\nsamples = 1\nvalue = [1, 0]"] ;
117 -> 118 ;
119 [label="entropy = 0.0\nsamples = 1\nvalue = [0, 1]"] ;
117 -> 119 ;
120 [label="X[0] <= 24.5\nentropy = 0.65\nsamples = 18\nvalue = [15, 3]"] ;
108 -> 120 ;
121 [label="X[6] <= 10.3354\nentropy = 0.8454\nsamples = 11\nvalue = [8, 3]"] ;
120 -> 121 ;
122 [label="entropy = 0.0\nsamples = 2\nvalue = [2, 0]"] ;
121 -> 122 ;
123 [label="X[0] <= 22.5\nentropy = 0.9183\nsamples = 9\nvalue = [6, 3]"] ;
121 -> 123 ;
124 [label="X[0] <= 20.5\nentropy = 1.0\nsamples = 4\nvalue = [2, 2]"] ;
123 -> 124 ;
125 [label="entropy = 0.9183\nsamples = 3\nvalue = [2, 1]"] ;
124 -> 125 ;
126 [label="entropy = 0.0\nsamples = 1\nvalue = [0, 1]"] ;
124 -> 126 ;
127 [label="X[0] <= 23.5\nentropy = 0.7219\nsamples = 5\nvalue = [4, 1]"] ;
123 -> 127 ;
128 [label="entropy = 0.0\nsamples = 3\nvalue = [3, 0]"] ;
127 -> 128 ;
129 [label="entropy = 1.0\nsamples = 2\nvalue = [1, 1]"] ;
127 -> 129 ;
130 [label="entropy = 0.0\nsamples = 7\nvalue = [7, 0]"] ;
120 -> 130 ;
131 [label="X[0] <= 28.75\nentropy = 0.2762\nsamples = 63\nvalue = [60, 3]"] ;
23 -> 131 ;
132 [label="entropy = 0.0\nsamples = 35\nvalue = [35, 0]"] ;
131 -> 132 ;
133 [label="X[0] <= 29.9213\nentropy = 0.4912\nsamples = 28\nvalue = [25, 3]"] ;
131 -> 133 ;
134 [label="X[4] <= 2.0\nentropy = 0.6098\nsamples = 20\nvalue = [17, 3]"] ;
133 -> 134 ;
135 [label="X[3] <= 0.5\nentropy = 0.5033\nsamples = 18\nvalue = [16, 2]"] ;
134 -> 135 ;
136 [label="X[4] <= 0.5\nentropy = 0.8113\nsamples = 8\nvalue = [6, 2]"] ;
135 -> 136 ;
137 [label="X[6] <= 12.9375\nentropy = 0.9183\nsamples = 6\nvalue = [4, 2]"] ;
136 -> 137 ;
138 [label="entropy = 0.0\nsamples = 2\nvalue = [2, 0]"] ;
137 -> 138 ;
139 [label="X[2] <= 0.5\nentropy = 1.0\nsamples = 4\nvalue = [2, 2]"] ;
137 -> 139 ;
140 [label="X[6] <= 25.9625\nentropy = 0.9183\nsamples = 3\nvalue = [2, 1]"] ;
139 -> 140 ;
141 [label="entropy = 0.0\nsamples = 1\nvalue = [1, 0]"] ;
140 -> 141 ;
142 [label="entropy = 1.0\nsamples = 2\nvalue = [1, 1]"] ;
140 -> 142 ;
143 [label="entropy = 0.0\nsamples = 1\nvalue = [0, 1]"] ;
139 -> 143 ;
144 [label="entropy = 0.0\nsamples = 2\nvalue = [2, 0]"] ;
136 -> 144 ;
145 [label="entropy = 0.0\nsamples = 10\nvalue = [10, 0]"] ;
135 -> 145 ;
146 [label="X[6] <= 23.7458\nentropy = 1.0\nsamples = 2\nvalue = [1, 1]"] ;
134 -> 146 ;
147 [label="entropy = 0.0\nsamples = 1\nvalue = [0, 1]"] ;
146 -> 147 ;
148 [label="entropy = 0.0\nsamples = 1\nvalue = [1, 0]"] ;
146 -> 148 ;
149 [label="entropy = 0.0\nsamples = 8\nvalue = [8, 0]"] ;
133 -> 149 ;
150 [label="X[6] <= 11.2854\nentropy = 0.7717\nsamples = 53\nvalue = [41, 12]"] ;
22 -> 150 ;
151 [label="X[0] <= 29.4213\nentropy = 0.5436\nsamples = 32\nvalue = [28, 4]"] ;
150 -> 151 ;
152 [label="X[0] <= 28.75\nentropy = 0.8366\nsamples = 15\nvalue = [11, 4]"] ;
151 -> 152 ;
153 [label="X[0] <= 19.25\nentropy = 0.7496\nsamples = 14\nvalue = [11, 3]"] ;
152 -> 153 ;
154 [label="entropy = 0.0\nsamples = 3\nvalue = [3, 0]"] ;
153 -> 154 ;
155 [label="X[0] <= 25.75\nentropy = 0.8454\nsamples = 11\nvalue = [8, 3]"] ;
153 -> 155 ;
156 [label="X[6] <= 7.2271\nentropy = 0.9183\nsamples = 9\nvalue = [6, 3]"] ;
155 -> 156 ;
157 [label="X[0] <= 21.0\nentropy = 0.7219\nsamples = 5\nvalue = [4, 1]"] ;
156 -> 157 ;
158 [label="entropy = 0.0\nsamples = 2\nvalue = [2, 0]"] ;
157 -> 158 ;
159 [label="X[0] <= 22.25\nentropy = 0.9183\nsamples = 3\nvalue = [2, 1]"] ;
157 -> 159 ;
160 [label="entropy = 0.0\nsamples = 1\nvalue = [0, 1]"] ;
159 -> 160 ;
161 [label="entropy = 0.0\nsamples = 2\nvalue = [2, 0]"] ;
159 -> 161 ;
162 [label="X[0] <= 21.0\nentropy = 1.0\nsamples = 4\nvalue = [2, 2]"] ;
156 -> 162 ;
163 [label="entropy = 0.0\nsamples = 1\nvalue = [0, 1]"] ;
162 -> 163 ;
164 [label="X[0] <= 24.25\nentropy = 0.9183\nsamples = 3\nvalue = [2, 1]"] ;
162 -> 164 ;
165 [label="entropy = 0.0\nsamples = 2\nvalue = [2, 0]"] ;
164 -> 165 ;
166 [label="entropy = 0.0\nsamples = 1\nvalue = [0, 1]"] ;
164 -> 166 ;
167 [label="entropy = 0.0\nsamples = 2\nvalue = [2, 0]"] ;
155 -> 167 ;
168 [label="entropy = 0.0\nsamples = 1\nvalue = [0, 1]"] ;
152 -> 168 ;
169 [label="entropy = 0.0\nsamples = 17\nvalue = [17, 0]"] ;
151 -> 169 ;
170 [label="X[6] <= 14.1583\nentropy = 0.9587\nsamples = 21\nvalue = [13, 8]"] ;
150 -> 170 ;
171 [label="entropy = 0.0\nsamples = 3\nvalue = [0, 3]"] ;
170 -> 171 ;
172 [label="X[5] <= 0.5\nentropy = 0.8524\nsamples = 18\nvalue = [13, 5]"] ;
170 -> 172 ;
173 [label="X[6] <= 24.8708\nentropy = 0.5665\nsamples = 15\nvalue = [13, 2]"] ;
172 -> 173 ;
174 [label="X[0] <= 26.5\nentropy = 0.3712\nsamples = 14\nvalue = [13, 1]"] ;
173 -> 174 ;
175 [label="X[6] <= 16.9167\nentropy = 0.8113\nsamples = 4\nvalue = [3, 1]"] ;
174 -> 175 ;
176 [label="entropy = 0.0\nsamples = 3\nvalue = [3, 0]"] ;
175 -> 176 ;
177 [label="entropy = 0.0\nsamples = 1\nvalue = [0, 1]"] ;
175 -> 177 ;
178 [label="entropy = 0.0\nsamples = 10\nvalue = [10, 0]"] ;
174 -> 178 ;
179 [label="entropy = 0.0\nsamples = 1\nvalue = [0, 1]"] ;
173 -> 179 ;
180 [label="entropy = 0.0\nsamples = 3\nvalue = [0, 3]"] ;
172 -> 180 ;
181 [label="X[6] <= 7.875\nentropy = 0.9852\nsamples = 14\nvalue = [8, 6]"] ;
21 -> 181 ;
182 [label="X[10] <= 0.5\nentropy = 0.8113\nsamples = 4\nvalue = [1, 3]"] ;
181 -> 182 ;
183 [label="entropy = 0.0\nsamples = 1\nvalue = [1, 0]"] ;
182 -> 183 ;
184 [label="entropy = 0.0\nsamples = 3\nvalue = [0, 3]"] ;
182 -> 184 ;
185 [label="X[6] <= 24.2625\nentropy = 0.8813\nsamples = 10\nvalue = [7, 3]"] ;
181 -> 185 ;
186 [label="X[6] <= 8.2063\nentropy = 0.7642\nsamples = 9\nvalue = [7, 2]"] ;
185 -> 186 ;
187 [label="X[6] <= 7.9875\nentropy = 0.971\nsamples = 5\nvalue = [3, 2]"] ;
186 -> 187 ;
188 [label="X[6] <= 7.9104\nentropy = 0.8113\nsamples = 4\nvalue = [3, 1]"] ;
187 -> 188 ;
189 [label="entropy = 0.0\nsamples = 1\nvalue = [1, 0]"] ;
188 -> 189 ;
190 [label="entropy = 0.9183\nsamples = 3\nvalue = [2, 1]"] ;
188 -> 190 ;
191 [label="entropy = 0.0\nsamples = 1\nvalue = [0, 1]"] ;
187 -> 191 ;
192 [label="entropy = 0.0\nsamples = 4\nvalue = [4, 0]"] ;
186 -> 192 ;
193 [label="entropy = 0.0\nsamples = 1\nvalue = [0, 1]"] ;
185 -> 193 ;
194 [label="X[0] <= 38.75\nentropy = 0.2668\nsamples = 110\nvalue = [105, 5]"] ;
20 -> 194 ;
195 [label="entropy = 0.0\nsamples = 43\nvalue = [43, 0]"] ;
194 -> 195 ;
196 [label="X[6] <= 7.9104\nentropy = 0.383\nsamples = 67\nvalue = [62, 5]"] ;
194 -> 196 ;
197 [label="entropy = 0.0\nsamples = 21\nvalue = [21, 0]"] ;
196 -> 197 ;
198 [label="X[6] <= 7.9875\nentropy = 0.496\nsamples = 46\nvalue = [41, 5]"] ;
196 -> 198 ;
199 [label="X[0] <= 41.5\nentropy = 0.9183\nsamples = 3\nvalue = [1, 2]"] ;
198 -> 199 ;
200 [label="entropy = 1.0\nsamples = 2\nvalue = [1, 1]"] ;
199 -> 200 ;
201 [label="entropy = 0.0\nsamples = 1\nvalue = [0, 1]"] ;
199 -> 201 ;
202 [label="X[6] <= 13.25\nentropy = 0.3651\nsamples = 43\nvalue = [40, 3]"] ;
198 -> 202 ;
203 [label="X[0] <= 61.5\nentropy = 0.5436\nsamples = 24\nvalue = [21, 3]"] ;
202 -> 203 ;
204 [label="X[0] <= 46.0\nentropy = 0.4537\nsamples = 21\nvalue = [19, 2]"] ;
203 -> 204 ;
205 [label="X[0] <= 44.5\nentropy = 0.65\nsamples = 12\nvalue = [10, 2]"] ;
204 -> 205 ;
206 [label="X[2] <= 0.5\nentropy = 0.4395\nsamples = 11\nvalue = [10, 1]"] ;
205 -> 206 ;
207 [label="entropy = 0.0\nsamples = 5\nvalue = [5, 0]"] ;
206 -> 207 ;
208 [label="X[0] <= 40.5\nentropy = 0.65\nsamples = 6\nvalue = [5, 1]"] ;
206 -> 208 ;
209 [label="entropy = 0.0\nsamples = 2\nvalue = [2, 0]"] ;
208 -> 209 ;
210 [label="X[0] <= 43.0\nentropy = 0.8113\nsamples = 4\nvalue = [3, 1]"] ;
208 -> 210 ;
211 [label="entropy = 0.9183\nsamples = 3\nvalue = [2, 1]"] ;
210 -> 211 ;
212 [label="entropy = 0.0\nsamples = 1\nvalue = [1, 0]"] ;
210 -> 212 ;
213 [label="entropy = 0.0\nsamples = 1\nvalue = [0, 1]"] ;
205 -> 213 ;
214 [label="entropy = 0.0\nsamples = 9\nvalue = [9, 0]"] ;
204 -> 214 ;
215 [label="X[10] <= 0.5\nentropy = 0.9183\nsamples = 3\nvalue = [2, 1]"] ;
203 -> 215 ;
216 [label="entropy = 0.0\nsamples = 1\nvalue = [1, 0]"] ;
215 -> 216 ;
217 [label="X[0] <= 66.0\nentropy = 1.0\nsamples = 2\nvalue = [1, 1]"] ;
215 -> 217 ;
218 [label="entropy = 0.0\nsamples = 1\nvalue = [0, 1]"] ;
217 -> 218 ;
219 [label="entropy = 0.0\nsamples = 1\nvalue = [1, 0]"] ;
217 -> 219 ;
220 [label="entropy = 0.0\nsamples = 19\nvalue = [19, 0]"] ;
202 -> 220 ;
221 [label="X[0] <= 54.5\nentropy = 0.8631\nsamples = 168\nvalue = [120, 48]"] ;
19 -> 221 ;
222 [label="X[2] <= 0.5\nentropy = 0.9112\nsamples = 144\nvalue = [97, 47]"] ;
221 -> 222 ;
223 [label="X[4] <= 2.5\nentropy = 0.9422\nsamples = 128\nvalue = [82, 46]"] ;
222 -> 223 ;
224 [label="X[5] <= 2.5\nentropy = 0.9582\nsamples = 121\nvalue = [75, 46]"] ;
223 -> 224 ;
225 [label="X[6] <= 26.4688\nentropy = 0.971\nsamples = 115\nvalue = [69, 46]"] ;
224 -> 225 ;
226 [label="entropy = 0.0\nsamples = 3\nvalue = [0, 3]"] ;
225 -> 226 ;
227 [label="X[6] <= 254.9479\nentropy = 0.9608\nsamples = 112\nvalue = [69, 43]"] ;
225 -> 227 ;
228 [label="X[6] <= 135.0667\nentropy = 0.9483\nsamples = 109\nvalue = [69, 40]"] ;
227 -> 228 ;
229 [label="X[0] <= 27.5\nentropy = 0.9733\nsamples = 99\nvalue = [59, 40]"] ;
228 -> 229 ;
230 [label="X[0] <= 24.5\nentropy = 0.896\nsamples = 16\nvalue = [5, 11]"] ;
229 -> 230 ;
231 [label="X[5] <= 0.5\nentropy = 0.9911\nsamples = 9\nvalue = [5, 4]"] ;
230 -> 231 ;
232 [label="X[6] <= 80.7334\nentropy = 0.7219\nsamples = 5\nvalue = [4, 1]"] ;
231 -> 232 ;
233 [label="entropy = 0.0\nsamples = 3\nvalue = [3, 0]"] ;
232 -> 233 ;
234 [label="X[8] <= 0.5\nentropy = 1.0\nsamples = 2\nvalue = [1, 1]"] ;
232 -> 234 ;
235 [label="entropy = 0.0\nsamples = 1\nvalue = [0, 1]"] ;
234 -> 235 ;
236 [label="entropy = 0.0\nsamples = 1\nvalue = [1, 0]"] ;
234 -> 236 ;
237 [label="X[10] <= 0.5\nentropy = 0.8113\nsamples = 4\nvalue = [1, 3]"] ;
231 -> 237 ;
238 [label="entropy = 0.0\nsamples = 3\nvalue = [0, 3]"] ;
237 -> 238 ;
239 [label="entropy = 0.0\nsamples = 1\nvalue = [1, 0]"] ;
237 -> 239 ;
240 [label="entropy = 0.0\nsamples = 7\nvalue = [0, 7]"] ;
230 -> 240 ;
241 [label="X[1] <= 0.5\nentropy = 0.9335\nsamples = 83\nvalue = [54, 29]"] ;
229 -> 241 ;
242 [label="X[0] <= 28.9213\nentropy = 0.7219\nsamples = 5\nvalue = [1, 4]"] ;
241 -> 242 ;
243 [label="entropy = 0.0\nsamples = 1\nvalue = [1, 0]"] ;
242 -> 243 ;
244 [label="entropy = 0.0\nsamples = 4\nvalue = [0, 4]"] ;
242 -> 244 ;
245 [label="X[6] <= 122.2666\nentropy = 0.9049\nsamples = 78\nvalue = [53, 25]"] ;
241 -> 245 ;
246 [label="X[6] <= 59.5646\nentropy = 0.8845\nsamples = 76\nvalue = [53, 23]"] ;
245 -> 246 ;
247 [label="X[6] <= 56.4146\nentropy = 0.9444\nsamples = 58\nvalue = [37, 21]"] ;
246 -> 247 ;
248 [label="X[0] <= 47.5\nentropy = 0.9121\nsamples = 55\nvalue = [37, 18]"] ;
247 -> 248 ;
249 [label="X[0] <= 45.25\nentropy = 0.8508\nsamples = 47\nvalue = [34, 13]"] ;
248 -> 249 ;
250 [label="X[6] <= 39.8625\nentropy = 0.8926\nsamples = 42\nvalue = [29, 13]"] ;
249 -> 250 ;
251 [label="X[6] <= 35.25\nentropy = 0.9666\nsamples = 28\nvalue = [17, 11]"] ;
250 -> 251 ;
252 [label="X[6] <= 28.1437\nentropy = 0.9044\nsamples = 25\nvalue = [17, 8]"] ;
251 -> 252 ;
253 [label="X[0] <= 34.0\nentropy = 0.6194\nsamples = 13\nvalue = [11, 2]"] ;
252 -> 253 ;
254 [label="entropy = 0.0\nsamples = 7\nvalue = [7, 0]"] ;
253 -> 254 ;
255 [label="X[0] <= 37.5\nentropy = 0.9183\nsamples = 6\nvalue = [4, 2]"] ;
253 -> 255 ;
256 [label="entropy = 0.0\nsamples = 1\nvalue = [0, 1]"] ;
255 -> 256 ;
257 [label="X[0] <= 43.5\nentropy = 0.7219\nsamples = 5\nvalue = [4, 1]"] ;
255 -> 257 ;
258 [label="entropy = 0.0\nsamples = 3\nvalue = [3, 0]"] ;
257 -> 258 ;
259 [label="entropy = 1.0\nsamples = 2\nvalue = [1, 1]"] ;
257 -> 259 ;
260 [label="X[6] <= 30.5979\nentropy = 1.0\nsamples = 12\nvalue = [6, 6]"] ;
252 -> 260 ;
261 [label="X[0] <= 35.5\nentropy = 0.9544\nsamples = 8\nvalue = [3, 5]"] ;
260 -> 261 ;
262 [label="X[0] <= 29.4213\nentropy = 0.65\nsamples = 6\nvalue = [1, 5]"] ;
261 -> 262 ;
263 [label="entropy = 0.0\nsamples = 1\nvalue = [1, 0]"] ;
262 -> 263 ;
264 [label="entropy = 0.0\nsamples = 5\nvalue = [0, 5]"] ;
262 -> 264 ;
265 [label="entropy = 0.0\nsamples = 2\nvalue = [2, 0]"] ;
261 -> 265 ;
266 [label="X[0] <= 34.9213\nentropy = 0.8113\nsamples = 4\nvalue = [3, 1]"] ;
260 -> 266 ;
267 [label="entropy = 0.0\nsamples = 3\nvalue = [3, 0]"] ;
266 -> 267 ;
268 [label="entropy = 0.0\nsamples = 1\nvalue = [0, 1]"] ;
266 -> 268 ;
269 [label="entropy = 0.0\nsamples = 3\nvalue = [0, 3]"] ;
251 -> 269 ;
270 [label="X[6] <= 52.2771\nentropy = 0.5917\nsamples = 14\nvalue = [12, 2]"] ;
250 -> 270 ;
271 [label="entropy = 0.0\nsamples = 11\nvalue = [11, 0]"] ;
270 -> 271 ;
272 [label="X[6] <= 52.8271\nentropy = 0.9183\nsamples = 3\nvalue = [1, 2]"] ;
270 -> 272 ;
273 [label="entropy = 0.0\nsamples = 2\nvalue = [0, 2]"] ;
272 -> 273 ;
274 [label="entropy = 0.0\nsamples = 1\nvalue = [1, 0]"] ;
272 -> 274 ;
275 [label="entropy = 0.0\nsamples = 5\nvalue = [5, 0]"] ;
249 -> 275 ;
276 [label="X[6] <= 39.4979\nentropy = 0.9544\nsamples = 8\nvalue = [3, 5]"] ;
248 -> 276 ;
277 [label="entropy = 0.0\nsamples = 3\nvalue = [0, 3]"] ;
276 -> 277 ;
278 [label="X[4] <= 0.5\nentropy = 0.971\nsamples = 5\nvalue = [3, 2]"] ;
276 -> 278 ;
279 [label="entropy = 0.0\nsamples = 2\nvalue = [2, 0]"] ;
278 -> 279 ;
280 [label="X[6] <= 55.6709\nentropy = 0.9183\nsamples = 3\nvalue = [1, 2]"] ;
278 -> 280 ;
281 [label="entropy = 0.0\nsamples = 2\nvalue = [0, 2]"] ;
280 -> 281 ;
282 [label="entropy = 0.0\nsamples = 1\nvalue = [1, 0]"] ;
280 -> 282 ;
283 [label="entropy = 0.0\nsamples = 3\nvalue = [0, 3]"] ;
247 -> 283 ;
284 [label="X[0] <= 47.5\nentropy = 0.5033\nsamples = 18\nvalue = [16, 2]"] ;
246 -> 284 ;
285 [label="entropy = 0.0\nsamples = 11\nvalue = [11, 0]"] ;
284 -> 285 ;
286 [label="X[6] <= 80.7542\nentropy = 0.8631\nsamples = 7\nvalue = [5, 2]"] ;
284 -> 286 ;
287 [label="entropy = 0.0\nsamples = 3\nvalue = [3, 0]"] ;
286 -> 287 ;
288 [label="X[6] <= 97.7646\nentropy = 1.0\nsamples = 4\nvalue = [2, 2]"] ;
286 -> 288 ;
289 [label="entropy = 0.0\nsamples = 2\nvalue = [0, 2]"] ;
288 -> 289 ;
290 [label="entropy = 0.0\nsamples = 2\nvalue = [2, 0]"] ;
288 -> 290 ;
291 [label="entropy = 0.0\nsamples = 2\nvalue = [0, 2]"] ;
245 -> 291 ;
292 [label="entropy = 0.0\nsamples = 10\nvalue = [10, 0]"] ;
228 -> 292 ;
293 [label="entropy = 0.0\nsamples = 3\nvalue = [0, 3]"] ;
227 -> 293 ;
294 [label="entropy = 0.0\nsamples = 6\nvalue = [6, 0]"] ;
224 -> 294 ;
295 [label="entropy = 0.0\nsamples = 7\nvalue = [7, 0]"] ;
223 -> 295 ;
296 [label="X[6] <= 29.5354\nentropy = 0.3373\nsamples = 16\nvalue = [15, 1]"] ;
222 -> 296 ;
297 [label="X[0] <= 27.5\nentropy = 0.8113\nsamples = 4\nvalue = [3, 1]"] ;
296 -> 297 ;
298 [label="entropy = 0.0\nsamples = 1\nvalue = [0, 1]"] ;
297 -> 298 ;
299 [label="entropy = 0.0\nsamples = 3\nvalue = [3, 0]"] ;
297 -> 299 ;
300 [label="entropy = 0.0\nsamples = 12\nvalue = [12, 0]"] ;
296 -> 300 ;
301 [label="X[5] <= 0.5\nentropy = 0.2499\nsamples = 24\nvalue = [23, 1]"] ;
221 -> 301 ;
302 [label="entropy = 0.0\nsamples = 17\nvalue = [17, 0]"] ;
301 -> 302 ;
303 [label="X[8] <= 0.5\nentropy = 0.5917\nsamples = 7\nvalue = [6, 1]"] ;
301 -> 303 ;
304 [label="entropy = 0.0\nsamples = 4\nvalue = [4, 0]"] ;
303 -> 304 ;
305 [label="X[4] <= 0.5\nentropy = 0.9183\nsamples = 3\nvalue = [2, 1]"] ;
303 -> 305 ;
306 [label="entropy = 0.0\nsamples = 2\nvalue = [2, 0]"] ;
305 -> 306 ;
307 [label="entropy = 0.0\nsamples = 1\nvalue = [0, 1]"] ;
305 -> 307 ;
308 [label="X[3] <= 0.5\nentropy = 0.872\nsamples = 376\nvalue = [110, 266]"] ;
0 -> 308 [labeldistance=2.5, labelangle=-45, headlabel="False"] ;
309 [label="X[6] <= 31.6812\nentropy = 0.3726\nsamples = 195\nvalue = [14, 181]"] ;
308 -> 309 ;
310 [label="X[6] <= 31.3396\nentropy = 0.5777\nsamples = 80\nvalue = [11, 69]"] ;
309 -> 310 ;
311 [label="X[6] <= 13.25\nentropy = 0.548\nsamples = 79\nvalue = [10, 69]"] ;
310 -> 311 ;
312 [label="X[0] <= 53.5\nentropy = 0.8315\nsamples = 19\nvalue = [5, 14]"] ;
311 -> 312 ;
313 [label="X[6] <= 12.825\nentropy = 0.7642\nsamples = 18\nvalue = [4, 14]"] ;
312 -> 313 ;
314 [label="entropy = 0.0\nsamples = 6\nvalue = [0, 6]"] ;
313 -> 314 ;
315 [label="X[4] <= 0.5\nentropy = 0.9183\nsamples = 12\nvalue = [4, 8]"] ;
313 -> 315 ;
316 [label="X[0] <= 31.25\nentropy = 0.8454\nsamples = 11\nvalue = [3, 8]"] ;
315 -> 316 ;
317 [label="X[0] <= 26.0\nentropy = 0.971\nsamples = 5\nvalue = [2, 3]"] ;
316 -> 317 ;
318 [label="entropy = 1.0\nsamples = 2\nvalue = [1, 1]"] ;
317 -> 318 ;
319 [label="X[0] <= 29.0\nentropy = 0.9183\nsamples = 3\nvalue = [1, 2]"] ;
317 -> 319 ;
320 [label="entropy = 0.0\nsamples = 1\nvalue = [0, 1]"] ;
319 -> 320 ;
321 [label="entropy = 1.0\nsamples = 2\nvalue = [1, 1]"] ;
319 -> 321 ;
322 [label="X[0] <= 37.0\nentropy = 0.65\nsamples = 6\nvalue = [1, 5]"] ;
316 -> 322 ;
323 [label="entropy = 0.0\nsamples = 4\nvalue = [0, 4]"] ;
322 -> 323 ;
324 [label="X[0] <= 40.0\nentropy = 1.0\nsamples = 2\nvalue = [1, 1]"] ;
322 -> 324 ;
325 [label="entropy = 0.0\nsamples = 1\nvalue = [1, 0]"] ;
324 -> 325 ;
326 [label="entropy = 0.0\nsamples = 1\nvalue = [0, 1]"] ;
324 -> 326 ;
327 [label="entropy = 0.0\nsamples = 1\nvalue = [1, 0]"] ;
315 -> 327 ;
328 [label="entropy = 0.0\nsamples = 1\nvalue = [1, 0]"] ;
312 -> 328 ;
329 [label="X[5] <= 0.5\nentropy = 0.4138\nsamples = 60\nvalue = [5, 55]"] ;
311 -> 329 ;
330 [label="X[0] <= 59.0\nentropy = 0.5813\nsamples = 36\nvalue = [5, 31]"] ;
329 -> 330 ;
331 [label="X[0] <= 28.5\nentropy = 0.5127\nsamples = 35\nvalue = [4, 31]"] ;
330 -> 331 ;
332 [label="entropy = 0.0\nsamples = 9\nvalue = [0, 9]"] ;
331 -> 332 ;
333 [label="X[0] <= 29.9213\nentropy = 0.6194\nsamples = 26\nvalue = [4, 22]"] ;
331 -> 333 ;
334 [label="X[6] <= 23.5\nentropy = 0.9183\nsamples = 6\nvalue = [2, 4]"] ;
333 -> 334 ;
335 [label="entropy = 0.0\nsamples = 1\nvalue = [1, 0]"] ;
334 -> 335 ;
336 [label="X[0] <= 29.4213\nentropy = 0.7219\nsamples = 5\nvalue = [1, 4]"] ;
334 -> 336 ;
337 [label="entropy = 0.8113\nsamples = 4\nvalue = [1, 3]"] ;
336 -> 337 ;
338 [label="entropy = 0.0\nsamples = 1\nvalue = [0, 1]"] ;
336 -> 338 ;
339 [label="X[0] <= 43.0\nentropy = 0.469\nsamples = 20\nvalue = [2, 18]"] ;
333 -> 339 ;
340 [label="entropy = 0.0\nsamples = 10\nvalue = [0, 10]"] ;
339 -> 340 ;
341 [label="X[6] <= 28.2167\nentropy = 0.7219\nsamples = 10\nvalue = [2, 8]"] ;
339 -> 341 ;
342 [label="X[2] <= 0.5\nentropy = 0.5033\nsamples = 9\nvalue = [1, 8]"] ;
341 -> 342 ;
343 [label="entropy = 0.0\nsamples = 7\nvalue = [0, 7]"] ;
342 -> 343 ;
344 [label="X[4] <= 0.5\nentropy = 1.0\nsamples = 2\nvalue = [1, 1]"] ;
342 -> 344 ;
345 [label="entropy = 0.0\nsamples = 1\nvalue = [0, 1]"] ;
344 -> 345 ;
346 [label="entropy = 0.0\nsamples = 1\nvalue = [1, 0]"] ;
344 -> 346 ;
347 [label="entropy = 0.0\nsamples = 1\nvalue = [1, 0]"] ;
341 -> 347 ;
348 [label="entropy = 0.0\nsamples = 1\nvalue = [1, 0]"] ;
330 -> 348 ;
349 [label="entropy = 0.0\nsamples = 24\nvalue = [0, 24]"] ;
329 -> 349 ;
350 [label="entropy = 0.0\nsamples = 1\nvalue = [1, 0]"] ;
310 -> 350 ;
351 [label="X[6] <= 149.0354\nentropy = 0.1744\nsamples = 115\nvalue = [3, 112]"] ;
309 -> 351 ;
352 [label="entropy = 0.0\nsamples = 86\nvalue = [0, 86]"] ;
351 -> 352 ;
353 [label="X[6] <= 152.5063\nentropy = 0.4798\nsamples = 29\nvalue = [3, 26]"] ;
351 -> 353 ;
354 [label="X[4] <= 0.5\nentropy = 0.9183\nsamples = 3\nvalue = [2, 1]"] ;
353 -> 354 ;
355 [label="entropy = 0.0\nsamples = 1\nvalue = [0, 1]"] ;
354 -> 355 ;
356 [label="entropy = 0.0\nsamples = 2\nvalue = [2, 0]"] ;
354 -> 356 ;
357 [label="X[0] <= 61.5\nentropy = 0.2352\nsamples = 26\nvalue = [1, 25]"] ;
353 -> 357 ;
358 [label="entropy = 0.0\nsamples = 25\nvalue = [0, 25]"] ;
357 -> 358 ;
359 [label="entropy = 0.0\nsamples = 1\nvalue = [1, 0]"] ;
357 -> 359 ;
360 [label="X[6] <= 23.35\nentropy = 0.9973\nsamples = 181\nvalue = [96, 85]"] ;
308 -> 360 ;
361 [label="X[6] <= 21.55\nentropy = 0.995\nsamples = 157\nvalue = [72, 85]"] ;
360 -> 361 ;
362 [label="X[6] <= 7.2667\nentropy = 0.9975\nsamples = 153\nvalue = [72, 81]"] ;
361 -> 362 ;
363 [label="X[6] <= 6.875\nentropy = 0.5436\nsamples = 8\nvalue = [1, 7]"] ;
362 -> 363 ;
364 [label="entropy = 0.0\nsamples = 1\nvalue = [1, 0]"] ;
363 -> 364 ;
365 [label="entropy = 0.0\nsamples = 7\nvalue = [0, 7]"] ;
363 -> 365 ;
366 [label="X[6] <= 20.825\nentropy = 0.9997\nsamples = 145\nvalue = [71, 74]"] ;
362 -> 366 ;
367 [label="X[6] <= 15.6459\nentropy = 0.9987\nsamples = 142\nvalue = [68, 74]"] ;
366 -> 367 ;
368 [label="X[0] <= 29.9213\nentropy = 0.9987\nsamples = 119\nvalue = [62, 57]"] ;
367 -> 368 ;
369 [label="X[6] <= 13.5958\nentropy = 0.9983\nsamples = 103\nvalue = [49, 54]"] ;
368 -> 369 ;
370 [label="X[6] <= 12.2354\nentropy = 0.9873\nsamples = 83\nvalue = [36, 47]"] ;
369 -> 370 ;
371 [label="X[6] <= 8.5896\nentropy = 0.9957\nsamples = 78\nvalue = [36, 42]"] ;
370 -> 371 ;
372 [label="X[0] <= 14.5\nentropy = 0.9764\nsamples = 61\nvalue = [25, 36]"] ;
371 -> 372 ;
373 [label="entropy = 0.0\nsamples = 1\nvalue = [1, 0]"] ;
372 -> 373 ;
374 [label="X[0] <= 16.5\nentropy = 0.971\nsamples = 60\nvalue = [24, 36]"] ;
372 -> 374 ;
375 [label="entropy = 0.0\nsamples = 4\nvalue = [0, 4]"] ;
374 -> 375 ;
376 [label="X[6] <= 7.3896\nentropy = 0.9852\nsamples = 56\nvalue = [24, 32]"] ;
374 -> 376 ;
377 [label="entropy = 0.0\nsamples = 1\nvalue = [1, 0]"] ;
376 -> 377 ;
378 [label="X[6] <= 8.0813\nentropy = 0.9806\nsamples = 55\nvalue = [23, 32]"] ;
376 -> 378 ;
379 [label="X[6] <= 7.5229\nentropy = 0.9751\nsamples = 54\nvalue = [22, 32]"] ;
378 -> 379 ;
380 [label="entropy = 0.0\nsamples = 1\nvalue = [0, 1]"] ;
379 -> 380 ;
381 [label="X[4] <= 2.5\nentropy = 0.9791\nsamples = 53\nvalue = [22, 31]"] ;
379 -> 381 ;
382 [label="X[0] <= 17.5\nentropy = 0.9829\nsamples = 52\nvalue = [22, 30]"] ;
381 -> 382 ;
383 [label="entropy = 0.0\nsamples = 1\nvalue = [1, 0]"] ;
382 -> 383 ;
384 [label="X[5] <= 1.0\nentropy = 0.9774\nsamples = 51\nvalue = [21, 30]"] ;
382 -> 384 ;
385 [label="X[6] <= 7.8875\nentropy = 0.971\nsamples = 50\nvalue = [20, 30]"] ;
384 -> 385 ;
386 [label="X[6] <= 7.6396\nentropy = 0.9418\nsamples = 39\nvalue = [14, 25]"] ;
385 -> 386 ;
387 [label="X[0] <= 26.4213\nentropy = 0.9183\nsamples = 3\nvalue = [2, 1]"] ;
386 -> 387 ;
388 [label="entropy = 0.0\nsamples = 1\nvalue = [0, 1]"] ;
387 -> 388 ;
389 [label="entropy = 0.0\nsamples = 2\nvalue = [2, 0]"] ;
387 -> 389 ;
390 [label="X[6] <= 7.7438\nentropy = 0.9183\nsamples = 36\nvalue = [12, 24]"] ;
386 -> 390 ;
391 [label="entropy = 0.0\nsamples = 5\nvalue = [0, 5]"] ;
390 -> 391 ;
392 [label="X[0] <= 21.5\nentropy = 0.9629\nsamples = 31\nvalue = [12, 19]"] ;
390 -> 392 ;
393 [label="X[0] <= 19.5\nentropy = 0.9852\nsamples = 7\nvalue = [4, 3]"] ;
392 -> 393 ;
394 [label="X[0] <= 18.5\nentropy = 0.971\nsamples = 5\nvalue = [2, 3]"] ;
393 -> 394 ;
395 [label="X[6] <= 7.8271\nentropy = 0.9183\nsamples = 3\nvalue = [2, 1]"] ;
394 -> 395 ;
396 [label="entropy = 1.0\nsamples = 2\nvalue = [1, 1]"] ;
395 -> 396 ;
397 [label="entropy = 0.0\nsamples = 1\nvalue = [1, 0]"] ;
395 -> 397 ;
398 [label="entropy = 0.0\nsamples = 2\nvalue = [0, 2]"] ;
394 -> 398 ;
399 [label="entropy = 0.0\nsamples = 2\nvalue = [2, 0]"] ;
393 -> 399 ;
400 [label="X[0] <= 23.5\nentropy = 0.9183\nsamples = 24\nvalue = [8, 16]"] ;
392 -> 400 ;
401 [label="entropy = 0.0\nsamples = 3\nvalue = [0, 3]"] ;
400 -> 401 ;
402 [label="X[6] <= 7.7771\nentropy = 0.9587\nsamples = 21\nvalue = [8, 13]"] ;
400 -> 402 ;
403 [label="X[10] <= 0.5\nentropy = 0.9968\nsamples = 15\nvalue = [7, 8]"] ;
402 -> 403 ;
404 [label="X[0] <= 26.9213\nentropy = 0.9852\nsamples = 14\nvalue = [6, 8]"] ;
403 -> 404 ;
405 [label="entropy = 1.0\nsamples = 2\nvalue = [1, 1]"] ;
404 -> 405 ;
406 [label="entropy = 0.9799\nsamples = 12\nvalue = [5, 7]"] ;
404 -> 406 ;
407 [label="entropy = 0.0\nsamples = 1\nvalue = [1, 0]"] ;
403 -> 407 ;
408 [label="X[0] <= 28.4213\nentropy = 0.65\nsamples = 6\nvalue = [1, 5]"] ;
402 -> 408 ;
409 [label="X[0] <= 26.5\nentropy = 1.0\nsamples = 2\nvalue = [1, 1]"] ;
408 -> 409 ;
410 [label="entropy = 0.0\nsamples = 1\nvalue = [0, 1]"] ;
409 -> 410 ;
411 [label="entropy = 0.0\nsamples = 1\nvalue = [1, 0]"] ;
409 -> 411 ;
412 [label="entropy = 0.0\nsamples = 4\nvalue = [0, 4]"] ;
408 -> 412 ;
413 [label="X[6] <= 7.9875\nentropy = 0.994\nsamples = 11\nvalue = [6, 5]"] ;
385 -> 413 ;
414 [label="X[0] <= 26.0\nentropy = 0.7219\nsamples = 5\nvalue = [4, 1]"] ;
413 -> 414 ;
415 [label="entropy = 0.0\nsamples = 2\nvalue = [2, 0]"] ;
414 -> 415 ;
416 [label="X[0] <= 27.5\nentropy = 0.9183\nsamples = 3\nvalue = [2, 1]"] ;
414 -> 416 ;
417 [label="entropy = 0.0\nsamples = 1\nvalue = [0, 1]"] ;
416 -> 417 ;
418 [label="entropy = 0.0\nsamples = 2\nvalue = [2, 0]"] ;
416 -> 418 ;
419 [label="X[0] <= 26.4213\nentropy = 0.9183\nsamples = 6\nvalue = [2, 4]"] ;
413 -> 419 ;
420 [label="entropy = 0.0\nsamples = 2\nvalue = [0, 2]"] ;
419 -> 420 ;
421 [label="entropy = 1.0\nsamples = 4\nvalue = [2, 2]"] ;
419 -> 421 ;
422 [label="entropy = 0.0\nsamples = 1\nvalue = [1, 0]"] ;
384 -> 422 ;
423 [label="entropy = 0.0\nsamples = 1\nvalue = [0, 1]"] ;
381 -> 423 ;
424 [label="entropy = 0.0\nsamples = 1\nvalue = [1, 0]"] ;
378 -> 424 ;
425 [label="X[6] <= 8.9062\nentropy = 0.9367\nsamples = 17\nvalue = [11, 6]"] ;
371 -> 425 ;
426 [label="entropy = 0.0\nsamples = 4\nvalue = [4, 0]"] ;
425 -> 426 ;
427 [label="X[6] <= 9.5875\nentropy = 0.9957\nsamples = 13\nvalue = [7, 6]"] ;
425 -> 427 ;
428 [label="entropy = 0.0\nsamples = 2\nvalue = [0, 2]"] ;
427 -> 428 ;
429 [label="X[6] <= 10.825\nentropy = 0.9457\nsamples = 11\nvalue = [7, 4]"] ;
427 -> 429 ;
430 [label="X[0] <= 19.0\nentropy = 0.5917\nsamples = 7\nvalue = [6, 1]"] ;
429 -> 430 ;
431 [label="X[0] <= 10.0\nentropy = 1.0\nsamples = 2\nvalue = [1, 1]"] ;
430 -> 431 ;
432 [label="entropy = 0.0\nsamples = 1\nvalue = [1, 0]"] ;
431 -> 432 ;
433 [label="entropy = 0.0\nsamples = 1\nvalue = [0, 1]"] ;
431 -> 433 ;
434 [label="entropy = 0.0\nsamples = 5\nvalue = [5, 0]"] ;
430 -> 434 ;
435 [label="X[6] <= 11.7125\nentropy = 0.8113\nsamples = 4\nvalue = [1, 3]"] ;
429 -> 435 ;
436 [label="entropy = 0.0\nsamples = 3\nvalue = [0, 3]"] ;
435 -> 436 ;
437 [label="entropy = 0.0\nsamples = 1\nvalue = [1, 0]"] ;
435 -> 437 ;
438 [label="entropy = 0.0\nsamples = 5\nvalue = [0, 5]"] ;
370 -> 438 ;
439 [label="X[6] <= 14.8729\nentropy = 0.9341\nsamples = 20\nvalue = [13, 7]"] ;
369 -> 439 ;
440 [label="X[6] <= 14.15\nentropy = 0.4395\nsamples = 11\nvalue = [10, 1]"] ;
439 -> 440 ;
441 [label="X[6] <= 13.8375\nentropy = 0.9183\nsamples = 3\nvalue = [2, 1]"] ;
440 -> 441 ;
442 [label="entropy = 0.0\nsamples = 2\nvalue = [2, 0]"] ;
441 -> 442 ;
443 [label="entropy = 0.0\nsamples = 1\nvalue = [0, 1]"] ;
441 -> 443 ;
444 [label="entropy = 0.0\nsamples = 8\nvalue = [8, 0]"] ;
440 -> 444 ;
445 [label="X[0] <= 19.0\nentropy = 0.9183\nsamples = 9\nvalue = [3, 6]"] ;
439 -> 445 ;
446 [label="entropy = 1.0\nsamples = 2\nvalue = [1, 1]"] ;
445 -> 446 ;
447 [label="X[0] <= 29.4213\nentropy = 0.8631\nsamples = 7\nvalue = [2, 5]"] ;
445 -> 447 ;
448 [label="entropy = 0.0\nsamples = 1\nvalue = [0, 1]"] ;
447 -> 448 ;
449 [label="X[8] <= 0.5\nentropy = 0.9183\nsamples = 6\nvalue = [2, 4]"] ;
447 -> 449 ;
450 [label="entropy = 0.8113\nsamples = 4\nvalue = [1, 3]"] ;
449 -> 450 ;
451 [label="entropy = 1.0\nsamples = 2\nvalue = [1, 1]"] ;
449 -> 451 ;
452 [label="X[6] <= 8.6729\nentropy = 0.6962\nsamples = 16\nvalue = [13, 3]"] ;
368 -> 452 ;
453 [label="entropy = 0.0\nsamples = 8\nvalue = [8, 0]"] ;
452 -> 453 ;
454 [label="X[5] <= 0.5\nentropy = 0.9544\nsamples = 8\nvalue = [5, 3]"] ;
452 -> 454 ;
455 [label="X[4] <= 0.5\nentropy = 0.971\nsamples = 5\nvalue = [2, 3]"] ;
454 -> 455 ;
456 [label="entropy = 0.0\nsamples = 2\nvalue = [0, 2]"] ;
455 -> 456 ;
457 [label="X[0] <= 42.5\nentropy = 0.9183\nsamples = 3\nvalue = [2, 1]"] ;
455 -> 457 ;
458 [label="entropy = 0.0\nsamples = 2\nvalue = [2, 0]"] ;
457 -> 458 ;
459 [label="entropy = 0.0\nsamples = 1\nvalue = [0, 1]"] ;
457 -> 459 ;
460 [label="entropy = 0.0\nsamples = 3\nvalue = [3, 0]"] ;
454 -> 460 ;
461 [label="X[6] <= 16.0\nentropy = 0.8281\nsamples = 23\nvalue = [6, 17]"] ;
367 -> 461 ;
462 [label="entropy = 0.0\nsamples = 5\nvalue = [0, 5]"] ;
461 -> 462 ;
463 [label="X[0] <= 1.5\nentropy = 0.9183\nsamples = 18\nvalue = [6, 12]"] ;
461 -> 463 ;
464 [label="entropy = 0.0\nsamples = 4\nvalue = [0, 4]"] ;
463 -> 464 ;
465 [label="X[0] <= 21.5\nentropy = 0.9852\nsamples = 14\nvalue = [6, 8]"] ;
463 -> 465 ;
466 [label="X[0] <= 11.0\nentropy = 0.7219\nsamples = 5\nvalue = [4, 1]"] ;
465 -> 466 ;
467 [label="X[6] <= 18.4562\nentropy = 1.0\nsamples = 2\nvalue = [1, 1]"] ;
466 -> 467 ;
468 [label="entropy = 0.0\nsamples = 1\nvalue = [0, 1]"] ;
467 -> 468 ;
469 [label="entropy = 0.0\nsamples = 1\nvalue = [1, 0]"] ;
467 -> 469 ;
470 [label="entropy = 0.0\nsamples = 3\nvalue = [3, 0]"] ;
466 -> 470 ;
471 [label="X[0] <= 38.5\nentropy = 0.7642\nsamples = 9\nvalue = [2, 7]"] ;
465 -> 471 ;
472 [label="X[6] <= 16.4\nentropy = 0.5436\nsamples = 8\nvalue = [1, 7]"] ;
471 -> 472 ;
473 [label="X[0] <= 27.9213\nentropy = 0.9183\nsamples = 3\nvalue = [1, 2]"] ;
472 -> 473 ;
474 [label="entropy = 0.0\nsamples = 1\nvalue = [1, 0]"] ;
473 -> 474 ;
475 [label="entropy = 0.0\nsamples = 2\nvalue = [0, 2]"] ;
473 -> 475 ;
476 [label="entropy = 0.0\nsamples = 5\nvalue = [0, 5]"] ;
472 -> 476 ;
477 [label="entropy = 0.0\nsamples = 1\nvalue = [1, 0]"] ;
471 -> 477 ;
478 [label="entropy = 0.0\nsamples = 3\nvalue = [3, 0]"] ;
366 -> 478 ;
479 [label="entropy = 0.0\nsamples = 4\nvalue = [0, 4]"] ;
361 -> 479 ;
480 [label="entropy = 0.0\nsamples = 24\nvalue = [24, 0]"] ;
360 -> 480 ;
}