digraph Tree {
node [shape=box] ;
0 [label="X[7] <= 0.5\nentropy = 0.9586\nsamples = 1045\nvalue = [647, 398]"] ;
1 [label="X[0] <= 9.5\nentropy = 0.6956\nsamples = 673\nvalue = [547, 126]"] ;
0 -> 1 [labeldistance=2.5, labelangle=45, headlabel="True"] ;
2 [label="X[4] <= 2.5\nentropy = 0.9518\nsamples = 35\nvalue = [13, 22]"] ;
1 -> 2 ;
3 [label="X[6] <= 15.5729\nentropy = 0.5436\nsamples = 24\nvalue = [3, 21]"] ;
2 -> 3 ;
4 [label="entropy = 0.8813\nsamples = 10\nvalue = [3, 7]"] ;
3 -> 4 ;
5 [label="entropy = 0.0\nsamples = 14\nvalue = [0, 14]"] ;
3 -> 5 ;
6 [label="entropy = 0.4395\nsamples = 11\nvalue = [10, 1]"] ;
2 -> 6 ;
7 [label="X[1] <= 0.5\nentropy = 0.6415\nsamples = 638\nvalue = [534, 104]"] ;
1 -> 7 ;
8 [label="X[0] <= 32.25\nentropy = 0.5387\nsamples = 503\nvalue = [441, 62]"] ;
7 -> 8 ;
9 [label="X[0] <= 30.75\nentropy = 0.5964\nsamples = 387\nvalue = [331, 56]"] ;
8 -> 9 ;
10 [label="X[5] <= 1.5\nentropy = 0.557\nsamples = 362\nvalue = [315, 47]"] ;
9 -> 10 ;
11 [label="X[10] <= 0.5\nentropy = 0.5732\nsamples = 346\nvalue = [299, 47]"] ;
10 -> 11 ;
12 [label="X[0] <= 29.4213\nentropy = 0.7175\nsamples = 91\nvalue = [73, 18]"] ;
11 -> 12 ;
13 [label="X[6] <= 7.7459\nentropy = 0.9284\nsamples = 32\nvalue = [21, 11]"] ;
12 -> 13 ;
14 [label="X[0] <= 22.25\nentropy = 0.7642\nsamples = 18\nvalue = [14, 4]"] ;
13 -> 14 ;
15 [label="entropy = 0.9183\nsamples = 9\nvalue = [6, 3]"] ;
14 -> 15 ;
16 [label="entropy = 0.5033\nsamples = 9\nvalue = [8, 1]"] ;
14 -> 16 ;
17 [label="entropy = 1.0\nsamples = 14\nvalue = [7, 7]"] ;
13 -> 17 ;
18 [label="X[6] <= 7.7438\nentropy = 0.5255\nsamples = 59\nvalue = [52, 7]"] ;
12 -> 18 ;
19 [label="entropy = 0.0\nsamples = 19\nvalue = [19, 0]"] ;
18 -> 19 ;
20 [label="X[6] <= 7.7896\nentropy = 0.669\nsamples = 40\nvalue = [33, 7]"] ;
18 -> 20 ;
21 [label="entropy = 0.7871\nsamples = 17\nvalue = [13, 4]"] ;
20 -> 21 ;
22 [label="entropy = 0.5586\nsamples = 23\nvalue = [20, 3]"] ;
20 -> 22 ;
23 [label="X[6] <= 7.7979\nentropy = 0.5111\nsamples = 255\nvalue = [226, 29]"] ;
11 -> 23 ;
24 [label="X[0] <= 20.5\nentropy = 0.7088\nsamples = 62\nvalue = [50, 12]"] ;
23 -> 24 ;
25 [label="entropy = 0.0\nsamples = 10\nvalue = [10, 0]"] ;
24 -> 25 ;
26 [label="X[6] <= 7.6125\nentropy = 0.7793\nsamples = 52\nvalue = [40, 12]"] ;
24 -> 26 ;
27 [label="entropy = 0.5328\nsamples = 33\nvalue = [29, 4]"] ;
26 -> 27 ;
28 [label="entropy = 0.9819\nsamples = 19\nvalue = [11, 8]"] ;
26 -> 28 ;
29 [label="X[6] <= 7.9104\nentropy = 0.43\nsamples = 193\nvalue = [176, 17]"] ;
23 -> 29 ;
30 [label="entropy = 0.0\nsamples = 43\nvalue = [43, 0]"] ;
29 -> 30 ;
31 [label="X[0] <= 18.75\nentropy = 0.5099\nsamples = 150\nvalue = [133, 17]"] ;
29 -> 31 ;
32 [label="entropy = 0.2352\nsamples = 26\nvalue = [25, 1]"] ;
31 -> 32 ;
33 [label="entropy = 0.5548\nsamples = 124\nvalue = [108, 16]"] ;
31 -> 33 ;
34 [label="entropy = 0.0\nsamples = 16\nvalue = [16, 0]"] ;
10 -> 34 ;
35 [label="X[6] <= 8.2063\nentropy = 0.9427\nsamples = 25\nvalue = [16, 9]"] ;
9 -> 35 ;
36 [label="entropy = 1.0\nsamples = 12\nvalue = [6, 6]"] ;
35 -> 36 ;
37 [label="entropy = 0.7793\nsamples = 13\nvalue = [10, 3]"] ;
35 -> 37 ;
38 [label="X[6] <= 7.9104\nentropy = 0.2937\nsamples = 116\nvalue = [110, 6]"] ;
8 -> 38 ;
39 [label="entropy = 0.0\nsamples = 31\nvalue = [31, 0]"] ;
38 -> 39 ;
40 [label="X[6] <= 18.9625\nentropy = 0.3681\nsamples = 85\nvalue = [79, 6]"] ;
38 -> 40 ;
41 [label="X[0] <= 39.5\nentropy = 0.469\nsamples = 60\nvalue = [54, 6]"] ;
40 -> 41 ;
42 [label="X[0] <= 36.25\nentropy = 0.6343\nsamples = 25\nvalue = [21, 4]"] ;
41 -> 42 ;
43 [label="X[0] <= 34.5\nentropy = 0.3228\nsamples = 17\nvalue = [16, 1]"] ;
42 -> 43 ;
44 [label="entropy = 0.5033\nsamples = 9\nvalue = [8, 1]"] ;
43 -> 44 ;
45 [label="entropy = 0.0\nsamples = 8\nvalue = [8, 0]"] ;
43 -> 45 ;
46 [label="entropy = 0.9544\nsamples = 8\nvalue = [5, 3]"] ;
42 -> 46 ;
47 [label="X[6] <= 11.425\nentropy = 0.316\nsamples = 35\nvalue = [33, 2]"] ;
41 -> 47 ;
48 [label="entropy = 0.6194\nsamples = 13\nvalue = [11, 2]"] ;
47 -> 48 ;
49 [label="entropy = 0.0\nsamples = 22\nvalue = [22, 0]"] ;
47 -> 49 ;
50 [label="entropy = 0.0\nsamples = 25\nvalue = [25, 0]"] ;
40 -> 50 ;
51 [label="X[0] <= 60.5\nentropy = 0.8945\nsamples = 135\nvalue = [93, 42]"] ;
7 -> 51 ;
52 [label="X[6] <= 26.1437\nentropy = 0.9183\nsamples = 123\nvalue = [82, 41]"] ;
51 -> 52 ;
53 [label="X[0] <= 29.9213\nentropy = 0.6723\nsamples = 17\nvalue = [14, 3]"] ;
52 -> 53 ;
54 [label="entropy = 0.8113\nsamples = 8\nvalue = [6, 2]"] ;
53 -> 54 ;
55 [label="entropy = 0.5033\nsamples = 9\nvalue = [8, 1]"] ;
53 -> 55 ;
56 [label="X[6] <= 27.1354\nentropy = 0.9414\nsamples = 106\nvalue = [68, 38]"] ;
52 -> 56 ;
57 [label="X[0] <= 39.0\nentropy = 0.9774\nsamples = 17\nvalue = [7, 10]"] ;
56 -> 57 ;
58 [label="entropy = 0.9183\nsamples = 9\nvalue = [3, 6]"] ;
57 -> 58 ;
59 [label="entropy = 1.0\nsamples = 8\nvalue = [4, 4]"] ;
57 -> 59 ;
60 [label="X[4] <= 0.5\nentropy = 0.8984\nsamples = 89\nvalue = [61, 28]"] ;
56 -> 60 ;
61 [label="X[0] <= 28.5\nentropy = 0.8037\nsamples = 53\nvalue = [40, 13]"] ;
60 -> 61 ;
62 [label="entropy = 0.994\nsamples = 11\nvalue = [6, 5]"] ;
61 -> 62 ;
63 [label="X[6] <= 39.8625\nentropy = 0.7025\nsamples = 42\nvalue = [34, 8]"] ;
61 -> 63 ;
64 [label="X[0] <= 30.5\nentropy = 0.8709\nsamples = 24\nvalue = [17, 7]"] ;
63 -> 64 ;
65 [label="entropy = 0.7642\nsamples = 9\nvalue = [7, 2]"] ;
64 -> 65 ;
66 [label="entropy = 0.9183\nsamples = 15\nvalue = [10, 5]"] ;
64 -> 66 ;
67 [label="X[10] <= 0.5\nentropy = 0.3095\nsamples = 18\nvalue = [17, 1]"] ;
63 -> 67 ;
68 [label="entropy = 0.5436\nsamples = 8\nvalue = [7, 1]"] ;
67 -> 68 ;
69 [label="entropy = 0.0\nsamples = 10\nvalue = [10, 0]"] ;
67 -> 69 ;
70 [label="X[6] <= 58.5\nentropy = 0.9799\nsamples = 36\nvalue = [21, 15]"] ;
60 -> 70 ;
71 [label="entropy = 0.9799\nsamples = 12\nvalue = [5, 7]"] ;
70 -> 71 ;
72 [label="X[5] <= 0.5\nentropy = 0.9183\nsamples = 24\nvalue = [16, 8]"] ;
70 -> 72 ;
73 [label="entropy = 0.7793\nsamples = 13\nvalue = [10, 3]"] ;
72 -> 73 ;
74 [label="entropy = 0.994\nsamples = 11\nvalue = [6, 5]"] ;
72 -> 74 ;
75 [label="entropy = 0.4138\nsamples = 12\nvalue = [11, 1]"] ;
51 -> 75 ;
76 [label="X[3] <= 0.5\nentropy = 0.8398\nsamples = 372\nvalue = [100, 272]"] ;
0 -> 76 [labeldistance=2.5, labelangle=-45, headlabel="False"] ;
77 [label="X[6] <= 26.125\nentropy = 0.3763\nsamples = 206\nvalue = [15, 191]"] ;
76 -> 77 ;
78 [label="X[0] <= 21.5\nentropy = 0.622\nsamples = 71\nvalue = [11, 60]"] ;
77 -> 78 ;
79 [label="entropy = 0.0\nsamples = 15\nvalue = [0, 15]"] ;
78 -> 79 ;
80 [label="X[6] <= 20.25\nentropy = 0.7147\nsamples = 56\nvalue = [11, 45]"] ;
78 -> 80 ;
81 [label="X[6] <= 13.25\nentropy = 0.5548\nsamples = 31\nvalue = [4, 27]"] ;
80 -> 81 ;
82 [label="X[6] <= 12.825\nentropy = 0.7025\nsamples = 21\nvalue = [4, 17]"] ;
81 -> 82 ;
83 [label="entropy = 0.469\nsamples = 10\nvalue = [1, 9]"] ;
82 -> 83 ;
84 [label="entropy = 0.8454\nsamples = 11\nvalue = [3, 8]"] ;
82 -> 84 ;
85 [label="entropy = 0.0\nsamples = 10\nvalue = [0, 10]"] ;
81 -> 85 ;
86 [label="X[0] <= 29.9213\nentropy = 0.8555\nsamples = 25\nvalue = [7, 18]"] ;
80 -> 86 ;
87 [label="entropy = 0.9612\nsamples = 13\nvalue = [5, 8]"] ;
86 -> 87 ;
88 [label="entropy = 0.65\nsamples = 12\nvalue = [2, 10]"] ;
86 -> 88 ;
89 [label="X[6] <= 149.0354\nentropy = 0.1925\nsamples = 135\nvalue = [4, 131]"] ;
77 -> 89 ;
90 [label="X[6] <= 29.3563\nentropy = 0.0764\nsamples = 107\nvalue = [1, 106]"] ;
89 -> 90 ;
91 [label="X[0] <= 32.0\nentropy = 0.3373\nsamples = 16\nvalue = [1, 15]"] ;
90 -> 91 ;
92 [label="entropy = 0.0\nsamples = 8\nvalue = [0, 8]"] ;
91 -> 92 ;
93 [label="entropy = 0.5436\nsamples = 8\nvalue = [1, 7]"] ;
91 -> 93 ;
94 [label="entropy = 0.0\nsamples = 91\nvalue = [0, 91]"] ;
90 -> 94 ;
95 [label="X[4] <= 0.5\nentropy = 0.4912\nsamples = 28\nvalue = [3, 25]"] ;
89 -> 95 ;
96 [label="entropy = 0.0\nsamples = 16\nvalue = [0, 16]"] ;
95 -> 96 ;
97 [label="entropy = 0.8113\nsamples = 12\nvalue = [3, 9]"] ;
95 -> 97 ;
98 [label="X[6] <= 23.35\nentropy = 0.9996\nsamples = 166\nvalue = [85, 81]"] ;
76 -> 98 ;
99 [label="X[0] <= 16.5\nentropy = 0.9884\nsamples = 142\nvalue = [62, 80]"] ;
98 -> 99 ;
100 [label="X[6] <= 13.5958\nentropy = 0.6666\nsamples = 23\nvalue = [4, 19]"] ;
99 -> 100 ;
101 [label="entropy = 0.0\nsamples = 9\nvalue = [0, 9]"] ;
100 -> 101 ;
102 [label="entropy = 0.8631\nsamples = 14\nvalue = [4, 10]"] ;
100 -> 102 ;
103 [label="X[6] <= 7.2667\nentropy = 0.9995\nsamples = 119\nvalue = [58, 61]"] ;
99 -> 103 ;
104 [label="entropy = 0.5436\nsamples = 8\nvalue = [1, 7]"] ;
103 -> 104 ;
105 [label="X[0] <= 36.5\nentropy = 0.9995\nsamples = 111\nvalue = [57, 54]"] ;
103 -> 105 ;
106 [label="X[6] <= 15.3729\nentropy = 0.9994\nsamples = 103\nvalue = [50, 53]"] ;
105 -> 106 ;
107 [label="X[6] <= 8.0813\nentropy = 0.9961\nsamples = 82\nvalue = [44, 38]"] ;
106 -> 107 ;
108 [label="X[0] <= 23.5\nentropy = 0.994\nsamples = 55\nvalue = [25, 30]"] ;
107 -> 108 ;
109 [label="X[0] <= 20.5\nentropy = 0.9183\nsamples = 18\nvalue = [6, 12]"] ;
108 -> 109 ;
110 [label="entropy = 1.0\nsamples = 10\nvalue = [5, 5]"] ;
109 -> 110 ;
111 [label="entropy = 0.5436\nsamples = 8\nvalue = [1, 7]"] ;
109 -> 111 ;
112 [label="X[10] <= 0.5\nentropy = 0.9995\nsamples = 37\nvalue = [19, 18]"] ;
108 -> 112 ;
113 [label="entropy = 0.971\nsamples = 25\nvalue = [10, 15]"] ;
112 -> 113 ;
114 [label="entropy = 0.8113\nsamples = 12\nvalue = [9, 3]"] ;
112 -> 114 ;
115 [label="X[6] <= 8.9062\nentropy = 0.8767\nsamples = 27\nvalue = [19, 8]"] ;
107 -> 115 ;
116 [label="entropy = 0.5436\nsamples = 8\nvalue = [7, 1]"] ;
115 -> 116 ;
117 [label="X[0] <= 27.5\nentropy = 0.9495\nsamples = 19\nvalue = [12, 7]"] ;
115 -> 117 ;
118 [label="entropy = 0.994\nsamples = 11\nvalue = [6, 5]"] ;
117 -> 118 ;
119 [label="entropy = 0.8113\nsamples = 8\nvalue = [6, 2]"] ;
117 -> 119 ;
120 [label="X[5] <= 0.5\nentropy = 0.8631\nsamples = 21\nvalue = [6, 15]"] ;
106 -> 120 ;
121 [label="entropy = 0.9799\nsamples = 12\nvalue = [5, 7]"] ;
120 -> 121 ;
122 [label="entropy = 0.5033\nsamples = 9\nvalue = [1, 8]"] ;
120 -> 122 ;
123 [label="entropy = 0.5436\nsamples = 8\nvalue = [7, 1]"] ;
105 -> 123 ;
124 [label="X[0] <= 16.0\nentropy = 0.2499\nsamples = 24\nvalue = [23, 1]"] ;
98 -> 124 ;
125 [label="entropy = 0.5436\nsamples = 8\nvalue = [7, 1]"] ;
124 -> 125 ;
126 [label="entropy = 0.0\nsamples = 16\nvalue = [16, 0]"] ;
124 -> 126 ;
}